{"layer_0_weights": [[-0.07711316645145416, 0.44399356842041016, -0.20554159581661224, 0.17185817658901215, -0.270822137594223, -0.7073727250099182, -0.23662732541561127, -0.48799827694892883, 0.23867042362689972, 0.31215301156044006, 0.1059320718050003, -0.43723684549331665, 0.3381369411945343, -0.08350212126970291, 0.0015674649039283395, -0.037894781678915024], [0.029450228437781334, 0.511699378490448, -0.6546016931533813, 0.08480365574359894, 0.3654252290725708, -0.37884771823883057, -0.33895447850227356, 0.01583119109272957, -0.29557809233665466, 0.3578503131866455, 0.1864958256483078, -0.4055030047893524, -0.15512220561504364, 0.17654982209205627, -0.19307675957679749, -0.2997460663318634], [0.569249153137207, 0.47536763548851013, 0.13274624943733215, 0.3052200973033905, 0.3092428147792816, -0.7138141393661499, -0.9770557880401611, -0.04540759697556496, -0.1534198820590973, -0.18700282275676727, -0.3573850691318512, 0.019455822184681892, -0.06990864127874374, 0.5376926064491272, 0.1754492223262787, 0.12238826602697372], [0.1253262162208557, 0.30068832635879517, 0.13531707227230072, -0.10270940512418747, -0.24765554070472717, 0.1196804940700531, -0.31914642453193665, -0.4516230821609497, 0.10765714943408966, 0.5602403283119202, -0.287436306476593, 0.13612034916877747, 0.4990846514701843, -0.21723300218582153, 0.1083499863743782, -0.39014050364494324], [0.2609610855579376, -0.13861417770385742, -0.6028640866279602, 0.4799844026565552, -0.1665547490119934, -0.35543033480644226, -0.6050878167152405, 0.27858781814575195, 0.5888428092002869, 0.33140355348587036, 0.053942177444696426, 0.22015801072120667, -0.04048721492290497, -0.39575454592704773, 0.407545804977417, -0.31780847907066345], [0.4395671784877777, 0.21254990994930267, -0.6138496994972229, -0.3161163628101349, 0.23801156878471375, -0.4636082351207733, -0.6358121633529663, -0.24250194430351257, -0.33268967270851135, -0.4908408224582672, 0.24400940537452698, -0.25175270438194275, 0.4299554228782654, 0.1349768340587616, 0.4439399242401123, 0.01857265830039978]], "layer_0_bias": [0.4776846468448639, -0.01100593339651823, -0.15582804381847382, 0.25786104798316956, 0.12474432587623596, 0.09108654409646988, 0.09775018692016602, -0.003126176306977868, 0.04234396293759346, 0.5465250015258789, 0.28835272789001465, 0.47789672017097473, 0.35308942198753357, 0.31974661350250244, -0.2214929461479187, -0.29805704951286316], "layer_1_weights": [[-0.6795458793640137, -0.7728065848350525, -0.7766467332839966, -0.03444948047399521, 0.31335514783859253, -0.12067548930644989, -1.066906452178955, 0.3262472450733185], [-0.32870134711265564, -0.683844268321991, -0.7057672739028931, -0.26637449860572815, -0.4430830776691437, -0.13643428683280945, -0.520378589630127, 0.12864191830158234], [0.3331551253795624, -0.18595470488071442, -0.08596330881118774, 0.5069062113761902, 0.09273470193147659, -0.49410244822502136, -0.1860373467206955, -0.0484793595969677], [-0.17607207596302032, 0.08585899323225021, -0.5621708035469055, 0.233143612742424, -0.010657232254743576, 0.5692104697227478, -0.46260175108909607, 0.26527756452560425], [0.034377146512269974, 0.377620667219162, 0.5027181506156921, 0.04147681966423988, -0.010395471006631851, -0.282875657081604, 0.23097583651542664, 0.4652673006057739], [0.29256051778793335, 0.16290947794914246, 0.5787093043327332, -0.15012595057487488, -0.6091959476470947, 0.23035700619220734, 0.08538223057985306, -0.38370171189308167], [0.18592678010463715, 0.47247254848480225, 0.38860559463500977, 0.27500495314598083, -0.43381357192993164, -0.48949846625328064, 0.590249240398407, -0.4821481704711914], [0.4841742515563965, -0.212221160531044, 0.27384278178215027, 0.3022788465023041, -0.13471639156341553, 0.002790014958009124, 0.08162473142147064, -0.07020378857851028], [0.2960463762283325, -0.40613117814064026, 0.08896325528621674, -0.07965681701898575, -0.08742855489253998, 0.31558069586753845, -0.329550176858902, -0.13899360597133636], [0.07825198024511337, 0.24443991482257843, -0.10191299766302109, 0.0030587029177695513, 0.15046235918998718, 0.18031764030456543, 0.3258965015411377, 0.45495420694351196], [0.5194927453994751, -0.18620401620864868, -0.22823889553546906, 0.11248920112848282, 0.5190562009811401, 0.5445637106895447, 0.6369588375091553, 0.44249582290649414], [-0.24575696885585785, 0.276109904050827, 0.1447344869375229, -0.3051896393299103, 0.6021434664726257, 0.13639211654663086, 0.5545804500579834, 0.3873060643672943], [-0.023977037519216537, -0.10262014716863632, 0.2903953194618225, -0.6115201115608215, 0.37295377254486084, -0.11147420853376389, 0.0993092805147171, 0.5153727531433105], [-0.14954760670661926, 0.27710583806037903, 0.06498345732688904, 0.018898967653512955, 0.5076106786727905, -0.0773594006896019, -0.19180497527122498, 0.2609083354473114], [-0.5840730667114258, 0.3015486001968384, -0.13312272727489471, 0.0022117882035672665, -0.4029415547847748, -0.09791503101587296, -0.3861301839351654, -0.43864017724990845], [-0.4238680601119995, -0.04818854480981827, 0.24491970241069794, -0.11926192790269852, -0.07727214694023132, 0.5225294232368469, -0.34483855962753296, -0.08567451685667038]], "layer_1_bias": [0.1803015023469925, -0.019561218097805977, 0.1377042829990387, -0.10578808933496475, 0.3912831246852875, 0.15109089016914368, 0.17596623301506042, 0.37230002880096436], "layer_2_weights": [[-0.42021429538726807], [-0.05652943253517151], [-0.5765198469161987], [0.5452293157577515], [1.0706210136413574], [0.7057396173477173], [-0.4289295971393585], [0.44743406772613525]], "layer_2_bias": [0.006545437034219503]}